0.2586156797428749200000000000000,-0.257100978056461200000000000000,0.04744609288482523600000000000000,0.6103046813861915400000000000000,-0.1868650115962928200000000000000,0.1129255048242437800000000000000,1.069524972255883300000000000000,0.3748678382271732300000000000000,-0.2862112505641047400000000000000,0.06919224636046557300000000000000,-0.0670880067192843600000000000000,-0.4927700475528962700000000000000,-0.1806835974265742500000000000000,0.02226460603545083300000000000000,-0.1473128999000339300000000000000,-0.3033648403384234200000000000000,0.1055758106698628200000000000000,0.5012661381148141300000000000000,-0.3086645395544035400000000000000,0.5819402615469119200000000000000,-0.02380968219405053500000000000000,0.07398944888111795600000000000000,-0.264098277697114300000000000000,-0.05600921312654181400000000000000,-0.4433186488043979700000000000000,0.05464199412364518400000000000000,0.3188922520166726500000000000000,-0.06423492190147002400000000000000,-0.5857977734734911600000000000000,0.09200986951383349800000000000000,0.08165842643464421600000000000000,0.4557378830893255600000000000000,-0.09793783016340001900000000000000,0.3712993151418012600000000000000,-0.3242063049141812900000000000000,0.6628192493994390400000000000000,0.185183184752935800000000000000,-0.1036638775605677900000000000000,0.3417282517495455200000000000000,-0.5824859985537900200000000000000,0.2509764339056072500000000000000,-0.08633787713976456800000000000000,-0.1503771351902363200000000000000,0.1453793004254282700000000000000,-0.1497139056051597100000000000000,0.2535257565991630400000000000000,0.214314292319296300000000000000,-0.2191603160789265800000000000000,0.1951166179105928200000000000000,0.8720383440297534400000000000000,0.595525316476399500000000000000,-0.07021449425641612700000000000000,-0.1790786069568275100000000000000,0.09155455753778558900000000000000,-0.4313219819201607500000000000000,-0.07056747354065065500000000000000,0.6251526482701503800000000000000,-0.3892786031393485300000000000000,0.3955161611531981500000000000000,-0.06756322123451297100000000000000,-0.05431912396569922600000000000000,-0.1584832790738712500000000000000,-0.04686909187039473700000000000000,-0.4007397290244520400000000000000,-0.07308671053847383400000000000000,-0.06869478354881192200000000000000,0.06549376367981803200000000000000,-0.09201968775168388500000000000000,0.06000611356121651100000000000000,0.1169729342374197200000000000000,0.04334974420472988100000000000000,-0.2602281519955013700000000000000,0.2537342167379680300000000000000,-0.02512138976753851600000000000000,0.2883312139586508600000000000000,0.02244027263441375500000000000000,-0.1771254664926220100000000000000,-0.2268386093160651700000000000000,0.2750728729458933900000000000000,-0.02009443627300711700000000000000,0.2256013468883720800000000000000,-0.03160443681231414600000000000000,0.1885837893494847500000000000000,0.03956718266619385600000000000000,-0.2158829675999987500000000000000,0.2654884802922542500000000000000,-0.07415098914717309400000000000000,-0.2028053652765814400000000000000,0.08938540502044821400000000000000,0.0280572464519426200000000000000,0.09013362660348293900000000000000,0.2731497852463123900000000000000,0.1818171275524215500000000000000,0.0388838840782994300000000000000,-0.10026394571848300000000000000,-0.1084113214266804200000000000000,0.08844211373543368900000000000000,-0.4310303544569117900000000000000,-0.4482871623247524100000000000000,-0.02141050410658076200000000000000,0.01178476176512006400000000000000,-0.2384513502407565300000000000000,-0.002743013972625567200000000000000,0.1476202534836060200000000000000,0.117706375602438700000000000000,0.6417548942248109100000000000000,-0.4307842039094651500000000000000,0.2634958566100508700000000000000,0.07534683635612643400000000000000,0.002846817748063994600000000000000,0.2832910696130943600000000000000,0.03729681693223045600000000000000,-0.07322626808946497400000000000000,0.06909647824373006700000000000000,0.3395669798559355900000000000000,-0.0244244776579043800000000000000,-0.7835407882254220600000000000000,0.5124978388701220100000000000000,-0.03650515441395315400000000000000,-0.2726653284807765100000000000000,0.1833449038345752700000000000000,-0.09825006777747370700000000000000,0.5035989149322455100000000000000,0.4988537995106924200000000000000,0.01273913293230586500000000000000,0.1730727698936531900000000000000,0.2617497520970142300000000000000,-0.238907126427218700000000000000,-0.1706117946749377800000000000000,-0.1626272344136028300000000000000,0.6974225373847905400000000000000,0.1655334658999418900000000000000,-0.1885833994449441200000000000000,-0.09302796613779916500000000000000,-0.06162792359417649400000000000000,0.03922369803944804300000000000000,-0.01485220070952672700000000000000,0.07583491760479817200000000000000,0.4279268801041053400000000000000,0.1768777867009446200000000000000,0.05891607841543450300000000000000,0.186841299424671200000000000000,-0.005920214847330821900000000000000,0.07957622696303798300000000000000,-0.156013604781281400000000000000,-0.2218305661490682100000000000000,-0.02089250566880045100000000000000,-0.1286920272552665700000000000000,0.2499751242169946900000000000000,0.09319055077308001400000000000000,0.05125378865169791200000000000000,0.1797860437342569400000000000000,-0.1056061181871137700000000000000,0.01194211874337961500000000000000,0.4460898156373360700000000000000,-0.4544342323073837800000000000000,-0.3710450949933133400000000000000,-0.08806120804267950100000000000000,-0.249711851382480500000000000000,0.06038063783637639300000000000000,0.2320487469482926900000000000000,-0.2048837287387879600000000000000,0.05879451513514660800000000000000,-0.4732411807694371600000000000000,0.07092849078483812200000000000000,-0.04267646663724455200000000000000,0.06091171781010019900000000000000,-0.06718046798724493200000000000000,0.1564503275597587100000000000000,-0.3185661602256585900000000000000,-0.6304606673019761400000000000000,-0.1382093350290669300000000000000,-0.3669491914253536500000000000000,0.3500961952918055200000000000000,-0.003857713834631301200000000000000,-0.2258901242379134400000000000000,-0.2148193647356400300000000000000,-0.03079438743449856900000000000000,-0.197648845674090500000000000000,-0.09862426423194241300000000000000,0.2663270291800917700000000000000,-0.3231275022864157900000000000000,0.04536748269410865300000000000000,-0.2499038307660926600000000000000,-0.0782233994704622100000000000000,0.4093027841581486900000000000000,0.05726236918069747800000000000000,0.07016016822971185600000000000000,0.1966792853110211900000000000000,-0.2314443650095751900000000000000,0.1515353798080551200000000000000,0.12118470719806700000000000000,-0.4661026984890280800000000000000,-0.006930965278986894200000000000000,0.1740150288664132300000000000000,0.4823483258889905700000000000000,0.5899111414901834200000000000000,-0.002490581129846385800000000000000,0.2569106485461673500000000000000,0.0003316326535626728400000000000000,0.06881956363793079200000000000000,-0.05883294249377844800000000000000,0.1006116929312580900000000000000,-0.2502940509913587100000000000000,0.3374019259469747700000000000000,-0.2248393044775626500000000000000,0.2228795831438376600000000000000,0.421274483786398200000000000000,0.04023828366498172200000000000000,0.087208645564487500000000000000,0.1747318790806329800000000000000,-0.08684296681750157400000000000000,-0.1095956524767838400000000000000,-0.2480335905139236200000000000000,0.4270748145478118800000000000000,-0.1837565524840906200000000000000,0.2589800976903806600000000000000,0.03260145244387185200000000000000,-0.2346929954305370900000000000000,-0.1424918664665625600000000000000,-0.1438847241206286400000000000000,-0.373792036032884300000000000000,-0.2955035284862302900000000000000,0.304739282860837900000000000000,0.08868145130788644700000000000000,-0.2040909117157921600000000000000,-0.203200791130134200000000000000,0.7433472658633174500000000000000,-0.147721304700179300000000000000,0.0191610467909228700000000000000,-0.08326138968923799100000000000000,0.08511411735409452100000000000000,-0.05648887035511775800000000000000,0.02811605852963745800000000000000,-0.179827000476536800000000000000,-0.2555664197880043700000000000000,0.4257370528481532700000000000000,-0.02181390025034980800000000000000,0.1462095639748190500000000000000,0.003177943623689232100000000000000,-0.07524298920216251900000000000000,-0.3212392492330455900000000000000,-0.102319492148427100000000000000,-0.3027329133859758500000000000000,0.0498473931971081600000000000000,-0.08183882670868694600000000000000,-0.1102220759448620900000000000000,-0.4181219084057080600000000000000,0.9542563989073230600000000000000,0.09650668522540709100000000000000,0.7725161720996457400000000000000,-0.08187143658211515400000000000000,-0.04882620232997687100000000000000,0.7069859841193774100000000000000,-0.1361034268511631100000000000000,-0.1368417780184390300000000000000,0.3111276835746803500000000000000,0.3582576525402177400000000000000,-0.271442249776195800000000000000,-0.3645759632995457800000000000000,0.05231397817646724800000000000000,-0.5576061227116105900000000000000,-0.1434004032649415800000000000000,0.1191391135279752400000000000000,-0.1523030956294072500000000000000,-0.3598504074956810900000000000000,0.1815261299088060100000000000000,0.4784307377160859100000000000000,-0.212734962265493100000000000000,0.100238519797154100000000000000,-0.003367201196369875900000000000000,0.2730725221260140700000000000000,-0.05028599820906055900000000000000,-0.1483421050040691100000000000000,-0.6541313064234941500000000000000,-0.08444388119837710500000000000000,0.06412724111469642100000000000000,0.02463428333561979200000000000000,-0.6774769534359705900000000000000,0.02269371713974163700000000000000,0.2152290086329566900000000000000,0.5787632920266881900000000000000,-0.4487432901763132600000000000000,0.2981329280844222700000000000000,-0.1947134267956102400000000000000,0.1869437192055048200000000000000,0.02015188127777805400000000000000,-0.1315360797455406600000000000000,0.2785738764328433700000000000000,-0.237713372911412700000000000000,-0.006811146275895581200000000000000,-0.3315572909664901700000000000000,-0.2996586954676548900000000000000,-0.1572318909156410500000000000000,-0.0765071222488855200000000000000,0.2028985886961807200000000000000,0.1246608647990533800000000000000,-0.5167200026065911200000000000000,0.03248257297950046100000000000000,0.2556015013379607800000000000000,0.518407880176811500000000000000,0.01081603178383663800000000000000,-0.02060775650889419200000000000000,0.1657803629458785800000000000000,-0.5727857740962625200000000000000,-0.07057404874693350100000000000000,0.3498516328378201100000000000000,-0.2699961855978989500000000000000,0.2191768107988427100000000000000,0.02258590039584098100000000000000,0.08349091453312623700000000000000,-0.02453060754401647700000000000000,-0.07554748413346647200000000000000,-0.1617692976913115700000000000000,-0.07756684111327964700000000000000,-0.2317337631948403500000000000000,-0.0899920859751408700000000000000,-0.2479425873582969400000000000000,0.2628823997419826900000000000000,0.04372939082748943100000000000000,0.1343327219014971200000000000000,-0.1462788837200090800000000000000,0.2638221726347841900000000000000,-0.2097911697969508900000000000000,0.4143701459781720700000000000000,0.006002925088237917900000000000000,-0.5278032067732143500000000000000,0.09787254254531731200000000000000,0.7433964211699916100000000000000,-0.2362200537758198900000000000000,0.1439542123818899300000000000000,-0.1129595149726371100000000000000,0.2317155287810737900000000000000,-0.2551729883065278500000000000000,-0.2378062661608743300000000000000,0.4564573073364903700000000000000,-0.1953779305307756200000000000000,-0.1541168418703186800000000000000,-0.06350725977583494800000000000000,-0.003216059912689514500000000000000,-0.04537711656493295700000000000000,0.06610660542451292400000000000000,-0.2009636166277454500000000000000,-0.2156831101111716700000000000000,-0.4864494110429531400000000000000,0.09614964525088680300000000000000,-0.06703592499397240100000000000000,-0.4735511048208387300000000000000,-0.2580232872534154500000000000000,-0.05005469883216891900000000000000,0.2640857751555144600000000000000,-0.4102214209463082600000000000000,0.02615155386345479500000000000000,0.1809051623893483400000000000000,0.2439898456172719900000000000000,-0.04973885271135697300000000000000,-0.6133593503026314500000000000000,-0.05667994084898690700000000000000,0.2041302737861632200000000000000,-0.114843369644013700000000000000,-0.1289736130381560200000000000000,0.08303193507937235700000000000000,-0.1229446749907510500000000000000,0.1281869650827371400000000000000,0.2382664289924790700000000000000,-0.09190672110712258500000000000000,-0.6838169855947350300000000000000,0.1616082155133784500000000000000,-0.02828708414998246400000000000000,-0.2483906532784528600000000000000,0.1039729975550784800000000000000,-0.1125749678043905900000000000000,0.6891188041148664800000000000000,0.3953508585626616100000000000000,0.1073034974738699300000000000000,0.3274070895746830100000000000000,0.4591558497557370300000000000000,-0.03344440458951163100000000000000,-0.1948332303964885300000000000000,-0.2599128411901044900000000000000,0.3676246453564601700000000000000,0.38664991896361600000000000000,-0.09215100594871408800000000000000,-0.05641637664431365500000000000000,-0.129071090337855100000000000000,-0.3745539378662133300000000000000,0.2241764967267916600000000000000,-0.2814426200397081600000000000000,0.4241233332297961200000000000000,0.2391942574384111600000000000000,-0.09468873166940601500000000000000,0.1511021040758776800000000000000,-0.06407643686506457600000000000000,-0.06464425669251178100000000000000,-0.1264654166117369900000000000000,-0.2592840327689050500000000000000,-0.08001347971261142700000000000000,-0.1406495318363905900000000000000,-0.2484645345699515500000000000000,0.04500496267260004800000000000000,0.02964525699249506700000000000000,0.3270274441889841600000000000000,-0.1699930585868542900000000000000,0.02322257127692182700000000000000,0.1043449748054605200000000000000,-0.3738733968768371300000000000000,0.07768279939028260900000000000000,-0.09418446807765244700000000000000,-0.8869083337390316600000000000000,0.1060936811601147200000000000000,0.1719079182485042900000000000000,-0.1267803532546594200000000000000,0.2165313482579244400000000000000,-0.6209169416088894400000000000000,-0.1514259025868091300000000000000,0.512306210242612800000000000000,-0.0257804406130913500000000000000,-0.1190430396325072200000000000000,0.07653873243303777100000000000000,-0.2483557262947112300000000000000,-0.6844991734376477700000000000000,-0.475635685432946100000000000000,-0.1258511752726689200000000000000,0.1424950127050800300000000000000,-0.1551312828057428400000000000000,0.4092036230149044800000000000000,-0.2576518669528020700000000000000,0.2403112545903224900000000000000,0.08460309679271413300000000000000,-0.07064631552314858100000000000000,0.1720378183031589200000000000000,-0.5578554119553954500000000000000,-0.005860504108236591500000000000000,-0.3135238787264737500000000000000,-0.2007460399105166500000000000000,-0.2618408312126603900000000000000,0.1167394590107367300000000000000,0.2654729804929965600000000000000,0.3822786446457965300000000000000,-0.5204632362227095100000000000000,0.572045351576730200000000000000,0.25350306026364600000000000000,-0.7175057515309880600000000000000,-0.02061770891897770100000000000000,-0.07629962171123996800000000000000,-0.0309483343742264600000000000000,0.40916968781328600000000000000,-0.1747609580941613700000000000000,0.18418838924972900000000000000,0.09584785869928659500000000000000,0.06250528634667354400000000000000,-0.09466674677825684400000000000000,0.02561538999334812800000000000000,-0.6753361834058806400000000000000,0.4685683329459965400000000000000,-0.09133290843113399400000000000000,0.3995281795960414800000000000000,0.05896409258590112200000000000000,-0.5088985494955744500000000000000,-0.2062562040406971700000000000000,-0.2324227903505249900000000000000,-0.4696252257139631500000000000000,-0.3024375454335139800000000000000,-0.67817900599573500000000000000,0.2124440299489650800000000000000,-0.5024599262259548100000000000000,0.1003942054597034100000000000000,-0.05705539899354645400000000000000,-0.3006600528024703200000000000000,-0.1001182266267748300000000000000,-0.3589825574930976500000000000000,-0.3576290872451992600000000000000,0.0918076348098665200000000000000,-0.147786511905303900000000000000,-0.1698218124224078200000000000000,-0.1039924513849479500000000000000,-0.1076338587511696100000000000000,0.3359948275659477800000000000000,-0.2307095377160308700000000000000,-0.2184833976238429200000000000000,0.1307938284652446800000000000000,-0.006282731919729571700000000000000,-0.1678066760290541400000000000000,-0.1387945998322480900000000000000,-0.4330205613071325100000000000000,-0.1964373422246246400000000000000,-0.1523846426168750900000000000000,0.08510124320939295400000000000000,-0.02501320180876653900000000000000,-0.1140353074411980800000000000000,-0.2100100359122304400000000000000,-0.2232607601975261900000000000000,0.03523694729012921700000000000000,-0.2325329603782606800000000000000,-0.3006159924860671300000000000000,0.1241693472298106300000000000000,0.03497885732794490900000000000000,-0.3728931722759893900000000000000,0.2025610992666804800000000000000,0.02425997536486502700000000000000,0.4486798684537889300000000000000,0.4838536146383943800000000000000,0.1279253622341420500000000000000,0.6934390809440891300000000000000,-0.245656843294605300000000000000,-0.009964952699356982900000000000000,0.1140694841439943400000000000000,0.2604587166219435900000000000000,-0.4061206744565719100000000000000,-0.2939287450171775300000000000000,0.05653849965873863200000000000000,-0.4461970484456255200000000000000,-0.2762850844619907900000000000000,-0.2494412155893893400000000000000,-0.6344333348363200300000000000000,-0.7768756544157654500000000000000,0.2755540357207204600000000000000,-0.07552764833264274900000000000000,-0.3666438781405846300000000000000,0.2445771183630053300000000000000,-0.2520745320847354600000000000000,0.3613364532825967800000000000000,0.1906779448113671800000000000000,0.1126431322068554600000000000000,-0.5845995218361591500000000000000,-0.0501987397103093800000000000000,0.08597236064116839400000000000000,-0.02816117365114276900000000000000,-0.6538479926210378800000000000000,-0.4094892169094499500000000000000,0.03642329126529325600000000000000,-0.2893563056298439400000000000000,-0.6168290071580541100000000000000,1.038605675270772900000000000000,0.3956744962488794600000000000000,-0.112548593311455700000000000000,0.2623075468233171900000000000000,0.006859794473357169200000000000000,0.1465690916393614100000000000000,-0.350134053503230900000000000000,-0.02431070200085592600000000000000,-0.2381176242319147100000000000000,-0.3025412371539474800000000000000,0.05751119753614534300000000000000,0.2300188334326207200000000000000,0.03187983793085179300000000000000,0.1591466666911716700000000000000,-0.7189953989940297600000000000000,0.259338010661906200000000000000,0.3028211088177929500000000000000,0.1303027246784420300000000000000,-0.1236584279966468800000000000000,0.2184437400073044300000000000000,0.08913329379499768100000000000000,-0.4450574102094245200000000000000,-0.002415893015982356200000000000000,0.4196215798135778400000000000000,-0.0680220788127067900000000000000,0.1873883405028162200000000000000,-0.09781470381146209500000000000000,0.4220820067734732900000000000000,-0.0396080576400003400000000000000,-0.09087321614469465200000000000000,0.08883919281061639100000000000000,-0.006562608610378536900000000000000,-0.2807062155625569800000000000000,-0.1086742886775160800000000000000,0.1043351937762939900000000000000,0.2934102515710485500000000000000,0.460719569781675500000000000000,0.02284781254048957500000000000000,-0.09738428457792308600000000000000,0.4805418981219064500000000000000,0.05446338306734055400000000000000,0.3866383850519571900000000000000,-0.05489215209169831500000000000000,-0.7064225663972976100000000000000,0.1507935281856509200000000000000,0.2036220692299692300000000000000,-0.07698907968426291200000000000000,0.04208802201816722700000000000000,-0.08866738324855649700000000000000,0.06716246019489369200000000000000,-0.1693511938673418200000000000000,0.02605459111071071700000000000000,0.1589695458855623900000000000000,-0.2772119098583885600000000000000,-0.2039272340417575500000000000000,-0.1444018642011879200000000000000,-0.3458233458238260100000000000000,-0.1347227434128018800000000000000,0.2609577706211868600000000000000,0.09226108999791347900000000000000,0.002984374167796228900000000000000,-0.3204235543926843800000000000000,0.2324596054583422900000000000000,-0.07513952627026586300000000000000,-0.406156526853188200000000000000,-0.2112661607714753400000000000000,-0.07131407352217736300000000000000,0.4100138082948036100000000000000,-0.1502713943008001400000000000000,-0.0005078154846764694300000000000000,0.2544506971418794600000000000000,0.1322013910899062500000000000000,-0.1264866092041801700000000000000,-0.7763579976177006300000000000000,-0.3662902962502885300000000000000,0.1092702936719594900000000000000,-0.2184581057957145400000000000000,-0.03075279745479294800000000000000,-0.4688184400083291200000000000000,0.05211338507335214900000000000000,-0.1433887930205898800000000000000,-0.1556247244935922400000000000000,-0.1242348898721802200000000000000,-0.8190852525838019400000000000000,-0.2260042912822966800000000000000,-0.2789518414848198300000000000000,-0.2954027992108083100000000000000,-0.06256852620004518800000000000000,-0.09496523669025785900000000000000,0.4819373421163137800000000000000,0.6233400524288333900000000000000,0.3159054365751017300000000000000,0.04650862229479595100000000000000,0.2592981332419557700000000000000,0.01995900303816223300000000000000,0.08145974705670337700000000000000,-0.2060161291538421800000000000000,0.217612380509337400000000000000,0.4149810228401315500000000000000,-0.07426729211486408900000000000000,-0.05602027010598141500000000000000,-0.1172219547229262600000000000000,-0.5524108265041408600000000000000,-0.1768608324597523400000000000000,-0.3356508523916553700000000000000,0.05450104322696795700000000000000,0.3367761480831046300000000000000,-0.1545449443944825800000000000000,-0.06727388904563440200000000000000,-0.01584552768140472200000000000000,-0.189290833867734400000000000000,-0.3216302060662470400000000000000,-0.1421049362696361900000000000000,-0.3480522743749577300000000000000,-0.2124035352113954100000000000000,-0.2238632150804456300000000000000,-0.3601699084827444900000000000000,-0.2418240201172601200000000000000,0.1762660451114672300000000000000,0.1780318818139475200000000000000,0.246227833674930400000000000000,0.1506675614484372100000000000000,0.01736109694859907400000000000000,0.05482090148529462900000000000000,-0.4058185530137867200000000000000,-0.2885688249299989100000000000000,-0.3691276160524794600000000000000,-0.01767192004495666400000000000000,-0.1871098873427611300000000000000,0.1475404272309238100000000000000,-0.6918369507813021400000000000000,-0.2070071054036564100000000000000,0.2393976977669740300000000000000,-0.1506199209563673600000000000000,-0.2459466353238546300000000000000,-0.04761002227745470700000000000000,-0.5151666578677521800000000000000,-0.6837556972026973500000000000000,-0.6454872936393162300000000000000,-0.09020920462482960600000000000000,0.2003062069186134500000000000000,-0.3592616166365994500000000000000,0.04764880464271525900000000000000,-0.3083968487583934600000000000000,0.03048737898135277900000000000000,0.01630155497596015600000000000000,-0.1920181748376604300000000000000,0.4975695575078922200000000000000,-0.3873030022866215700000000000000,0.05528991092312936900000000000000,-0.1851126856126414400000000000000,-0.08447161553708047700000000000000,-0.3021926858927739800000000000000,0.08376890571124101500000000000000,0.1540634926201224200000000000000,0.2360175772212150800000000000000,-0.3629615679683662600000000000000,0.1427554284470032300000000000000,-0.04381539283563595800000000000000,-0.4431864479082092100000000000000,0.07421967141351189200000000000000,0.1947690344844459900000000000000,0.1605721211005903800000000000000,0.3946181954861786600000000000000,0.03277055515128474200000000000000,-0.1521445856816207300000000000000,0.2195786361655183100000000000000,-0.008435773523059325600000000000000,0.3128510100561324200000000000000,0.3068470554070648100000000000000,-0.3382546370136558200000000000000,0.2693105351320998500000000000000,0.009623638906374446300000000000000,0.2262080186367312600000000000000,0.4557792270406358400000000000000,-0.5125047636102004800000000000000,-0.05687629589334593900000000000000,-0.08624346350013387100000000000000,-0.288280031296381800000000000000,-0.5313543422010620400000000000000,-0.4277025733623692800000000000000,0.1568669558000853600000000000000,-0.02656858647420562100000000000000,-0.2724658297884469700000000000000,0.1606209740742892100000000000000,0.08996393156929752300000000000000,0.1278129255150381200000000000000,-0.4271159568641759700000000000000,-0.255423339028548300000000000000,0.2376002774327402300000000000000,-0.2406120574202237300000000000000,-0.08331030229469034400000000000000,-0.1916169039696823700000000000000,-0.1807749112279846400000000000000,0.03864127981919367200000000000000,0.01230181322891281800000000000000,-0.2495025034018950900000000000000,0.08340750539903227200000000000000,-0.04020773251499255900000000000000,-0.1158884905041787600000000000000,-0.1344397868083941100000000000000,-0.5616782732809886300000000000000,0.01208851732815923400000000000000,0.01849118388185905200000000000000,0.3663896580449119100000000000000,0.2242855811669817200000000000000,-0.2859318246121735900000000000000,-0.1351201806813444600000000000000,-0.3686690500216179800000000000000,0.07679456960219578600000000000000,-0.2084845482883657400000000000000,-0.2211487167026230700000000000000,-0.1477269039969879300000000000000,-0.1324502754753398800000000000000,-0.3524250927704499800000000000000,0.2375479559337702600000000000000,0.2610514019175483900000000000000,0.4964350738170785800000000000000,0.5023919554335467600000000000000,0.3591876557778450100000000000000,0.6072965473689383400000000000000,-0.236139159123385100000000000000,0.552377349040452100000000000000,0.03324733002882066700000000000000,0.2375718045957426500000000000000,-0.2013085692742194500000000000000,-0.3261376343697884900000000000000,0.2193308341248106900000000000000,-0.2341533926957980700000000000000,-0.2577522146071986600000000000000,-0.2465426125189016400000000000000,-0.3759662290252306400000000000000,-0.4502035694218399200000000000000,0.6606799384536529200000000000000,-0.1504965703418484600000000000000,0.08955435717203445700000000000000,0.1352994736259806300000000000000,-0.2371915554444762900000000000000,0.479455978360073200000000000000,0.1576132164220012700000000000000,0.2300654402617548800000000000000,-0.7280742810737498300000000000000,0.04658329923091244400000000000000,0.1074198697291173200000000000000,-0.07639914770231361100000000000000,-0.5747705522025801100000000000000,-0.5069204806113297700000000000000,0.09516062168196977300000000000000,-0.1367928611573082900000000000000,-0.524199415003258400000000000000,0.7272539851084802700000000000000,0.1934560205816305800000000000000,0.1276039827175626800000000000000,0.09343251581166996100000000000000,0.06082169843286949100000000000000,0.4358505886001780600000000000000,-0.1402626496383811700000000000000,0.2903115692293046200000000000000,-0.3046389363634066100000000000000,-0.07914833844730448400000000000000,0.06397620773830255100000000000000,0.4374871553409294700000000000000,-0.1084217048246345800000000000000,0.2394134790875465400000000000000,-1.041060157207121900000000000000,0.248219057480989800000000000000,0.172661667459000500000000000000,0.1395295557956833800000000000000,-0.08011270302383227700000000000000,-0.07520625390000187900000000000000,-0.07712198307936031500000000000000,-0.8201336594568983100000000000000,0.03800184010973427200000000000000,0.8589851397563779100000000000000,-0.2273747473030625100000000000000,0.05795350214066501100000000000000,-0.2629083856102820700000000000000,0.3985862761582273400000000000000,-0.04476423837046894500000000000000,0.1225313025701754800000000000000,0.07131182398123699100000000000000,-0.0995543436419988600000000000000,-0.03722380338568732200000000000000,0.1402079093869630600000000000000,0.1790681368415944500000000000000,0.1459259457923793600000000000000,0.8180230232279568400000000000000,0.3834361097680598100000000000000,0.2621851174120309900000000000000,0.01905097226999779800000000000000,-0.06354737181312469800000000000000,0.3649778610270458200000000000000,-0.08420071857397655500000000000000,-0.541316337445003400000000000000,0.01363211468606837600000000000000,0.07068099158499478700000000000000,0.03071661232709637900000000000000,0.06906098045013785200000000000000,-0.1514242277073558400000000000000,0.2885771737495295700000000000000,-0.1178466928124432800000000000000,-0.1923902992455199800000000000000,0.243869441977331600000000000000,-0.3870467666002260800000000000000,-0.1920347329528078500000000000000,-0.009852833079056185300000000000000,-0.4217823631981273400000000000000,-0.1884665645348548900000000000000,0.302953067820360800000000000000,0.4406385515934642100000000000000,-0.03559505915513645100000000000000,-0.4480457336985952400000000000000,0.01094817955209800000000000000,0.1832742760160496500000000000000,-0.494649401288858700000000000000,-0.2972942584428781600000000000000,-0.07926786588495154900000000000000,0.1673296470549057200000000000000,-0.4338423409459634100000000000000,-0.03159932095104193300000000000000,0.4136265387988330400000000000000,0.1911895804325885700000000000000,-0.3422662579525985700000000000000,-0.8100222625152386800000000000000,0.03475785465298131300000000000000,0.2663808386692072500000000000000,-0.1208577715439036700000000000000,-0.3618803167306723400000000000000,-0.3526396277566063400000000000000,-0.4117517173724649600000000000000,-0.3597814520560771400000000000000,-0.2001557673555839400000000000000,-0.04002297208922638700000000000000,-0.2353929377227200500000000000000,0.06854264283676161900000000000000,-0.2112284340529910500000000000000,-0.02938571922897557900000000000000,-0.2478571033170752800000000000000,-0.1291199771759133900000000000000,0.5452318360218881800000000000000,0.2922394128248406700000000000000,0.4330527709073312400000000000000,0.1231598636480708800000000000000,0.01901937870958603600000000000000,-0.1843190387914725200000000000000,-0.05275438251365149200000000000000,-0.3394156941785359500000000000000,0.1359042068689907700000000000000,0.6209822201861654500000000000000,-0.1086933599893715500000000000000,0.1692593613772313500000000000000,-0.1618485337985598700000000000000,-0.3405473928149613200000000000000,0.3385645306192748800000000000000,-0.4958281209092653100000000000000,0.1826982487624685100000000000000,0.3701490506639957800000000000000,-0.2227585033735160800000000000000,-0.2792173212938877100000000000000,-0.05158717640124457800000000000000,-0.2051146743710658700000000000000,-0.1664598999635839600000000000000,0.01065248151925962300000000000000,-0.06917444217217338900000000000000,0.08496962756524721600000000000000,-0.1582663479529118900000000000000,0.009919719696072691300000000000000,-0.1065873434390010900000000000000,0.52438002494932900000000000000,0.07842242886779586500000000000000,0.2459802596023868400000000000000,0.1919668650764148900000000000000,0.1957296538904014500000000000000,-0.004166797256897983700000000000000,-0.1721585768705871100000000000000,0.1149306274540804200000000000000,-0.3052527734992951400000000000000,-0.1934037032168592900000000000000,-0.1205710086532301400000000000000,-0.1642535493937770100000000000000,-0.876426107280074200000000000000,-0.2158786815488029600000000000000,0.3594263730541447700000000000000,-0.02303856136057056600000000000000,-0.1189483954149622700000000000000,-0.2405338401397867900000000000000,-0.4826361776340609100000000000000,-0.6375405895225477700000000000000,-0.4694814630923634900000000000000,-0.2006234195057703100000000000000,0.1891374150817030900000000000000,-0.3626588139853970700000000000000,0.1384886746094077500000000000000,-0.3818073151351142900000000000000,-0.08553575997002814400000000000000,0.1113638294888573800000000000000,-0.03299372495041959900000000000000,0.1033989702002276100000000000000,-0.1179235548799387600000000000000,-0.01110681683495031600000000000000,0.001411129630366658900000000000000,-0.2049423528961172900000000000000,0.2014402852446933500000000000000,0.2275059190425760800000000000000,0.4659233789457862300000000000000,0.331517749656761400000000000000,-0.09835223253270275500000000000000,0.4488601638839376800000000000000,-0.1440557007481706500000000000000,-0.2518641054564196800000000000000,-0.0861678377379704600000000000000,-0.05866733580542397200000000000000,0.009001064977543108600000000000000,0.185783836270871800000000000000,0.1340069727964070500000000000000,0.030869677848802700000000000000,0.1648976108912679800000000000000,0.07051153628323003600000000000000,0.1976569941921348100000000000000,-0.02539418142431654500000000000000,-0.1862143316336926400000000000000,0.561980795757622500000000000000,-0.09512122943253241400000000000000,0.07023738438290021100000000000000,-0.1310479625918082300000000000000,-0.2858435210955971300000000000000,-0.05205013487378301600000000000000,-0.1123850680856372200000000000000,0.0111859511887246500000000000000,-0.3235137328850889400000000000000,-0.5088688247829865600000000000000,-0.2119332702762856400000000000000,-0.07012583618849259300000000000000,-0.2201177033591562900000000000000,0.2363379686947957900000000000000,-0.469172243967964200000000000000,0.4094720609167011900000000000000,-0.2233091441424246100000000000000,0.103550373548126100000000000000,0.1984479973920145500000000000000,-0.1363569661234095300000000000000,-0.06620175272830487700000000000000,-0.2527885807146522700000000000000,0.01082726254978749900000000000000,-0.5902600663929077300000000000000,0.07704425726818632500000000000000,-0.4512572155534425600000000000000,-0.01009615209152214800000000000000,0.04633318832559275200000000000000,-0.2396880250776675700000000000000,-0.1234382356817148900000000000000,-0.4507027021379385600000000000000,-0.2038515694518418800000000000000,-0.1370359818706544100000000000000,0.7827933784865531700000000000000,-0.1266967512861233200000000000000,-0.03189044842474806500000000000000,0.05258467634210501500000000000000,-0.1999135228882909200000000000000,-0.08304784703705461700000000000000,-0.3534999071879741900000000000000,-0.171282158882989700000000000000,-0.0888188151602818800000000000000,-0.1242616499640809800000000000000,-0.5248473061705100100000000000000,0.001767761795900167500000000000000,0.1088874896479603300000000000000,0.4879464518964945500000000000000,0.3385689341547838400000000000000,0.1326055289115707100000000000000,0.5652026794848640200000000000000,-0.2434144419943638500000000000000,0.1491505078346603600000000000000,-0.4310782423671163400000000000000,0.4776567737948149700000000000000,-0.06035483062961119500000000000000,0.1111449451858096400000000000000,-0.08126064564100786400000000000000,-0.3011581516327715400000000000000,0.1670147461008393300000000000000,-0.2922931257769134600000000000000,-0.159512700200837100000000000000,-0.222754230345678400000000000000,0.9099911670435942800000000000000,0.5332923069454166300000000000000,-0.0486380343590345700000000000000,-0.009896026931225416700000000000000,-0.0661203390460837200000000000000,-0.1041722126655869700000000000000,-0.02337793492299609200000000000000,0.09836321224116220700000000000000,-0.6980432620083905100000000000000,-0.1564057846224740600000000000000,0.1487954751965684400000000000000,0.0002224943753810941300000000000000,-0.5397807485735808300000000000000,-0.3359229988192112800000000000000,0.2658645380301050700000000000000,0.283593672761577600000000000000,-0.2301061834005519400000000000000,0.2475451770776700100000000000000,0.07643739031680460400000000000000,-0.09296466254950802600000000000000,0.134461405793438900000000000000,-0.1689754319000307800000000000000,0.1863757665029192600000000000000,0.09977741834042308500000000000000,0.4887137510543690900000000000000,-0.1146204646196261100000000000000,-0.1942182916375398400000000000000,-0.04723096129893514900000000000000,0.1806927670756777700000000000000,-0.1112675200686833600000000000000,0.2123875690187402600000000000000,-0.5655756791186209400000000000000,0.1967971990231820200000000000000,0.6563488693274454100000000000000,0.03218808425101776800000000000000,0.07718718204379686200000000000000,-0.3141423921661090100000000000000,-0.1074298957418909100000000000000,-0.1760145244389836600000000000000,-0.1785954020665378700000000000000,0.1513678331005462500000000000000,0.006369612155224711700000000000000,0.06657901760559449500000000000000,-0.007633404317208892700000000000000,0.2928692950690052800000000000000,-0.1999928559709755500000000000000,-0.1076622393704687500000000000000,0.3559008404919468100000000000000,-0.1820903349306619800000000000000,0.01930385203528145800000000000000,0.1110068232488526400000000000000,0.009408300740254536100000000000000,-0.003137050681935185600000000000000,0.4832331023967538200000000000000,0.5951773313211932100000000000000,-0.1783352481160610200000000000000,0.3267240100837132100000000000000,-0.0297908084022475500000000000000,0.3322433606194988800000000000000,0.04442443946136348500000000000000,-0.3955139247078699500000000000000,0.267027229966990300000000000000,0.2763758963892258800000000000000,0.168477664888113500000000000000,-0.1942593485497218800000000000000,-0.1053878992654357200000000000000,0.2037026883030428100000000000000,0.3086195544477267600000000000000,-0.2467019884201800400000000000000,0.1205068226853107100000000000000,-0.3132634629842786500000000000000,-0.08244561688569140800000000000000,0.2478685402766204500000000000000,-0.3957578725533237900000000000000,0.08080230993126687200000000000000,0.628915639913281700000000000000,0.03579243924023273900000000000000,0.1515145054644898300000000000000,-0.3055332297163289600000000000000,0.4381897114202390500000000000000,0.007655457572115663100000000000000,-0.451820442561443600000000000000,0.04605128380831555900000000000000,-0.01652790821255300000000000000,0.1745496263488934300000000000000,-0.202852234059053700000000000000,-0.08861680242061631400000000000000,0.3563994410480301200000000000000,0.09786469964717084400000000000000,0.08115557751448708400000000000000,-0.2975054366219808100000000000000,0.1188550058063434500000000000000,0.4085715135406391400000000000000,-0.30838800042601600000000000000,-0.06019230423653783300000000000000,0.04335492410995884400000000000000,-0.1365173939848822500000000000000,-0.2977065915162091500000000000000,-0.09510710568891392300000000000000,-0.4237841890664141900000000000000,0.3070696156400989900000000000000,0.3391247871183727900000000000000,0.1256942951238884700000000000000,-0.03687596083946299800000000000000,0.04949476403687284200000000000000,0.05025596239670516300000000000000,0.6465997555524358700000000000000,0.2956161122945196700000000000000,0.04852029947492869600000000000000,-0.02114650737159012900000000000000,0.1888807597387439100000000000000,0.2192134412006113400000000000000,-0.05912301004660114300000000000000,-0.1015886945911862600000000000000,0.3320921433890177700000000000000,0.1635713980894099300000000000000,-0.03923263047514779400000000000000,-0.07402412219891800500000000000000,-0.07969250703640669300000000000000,-0.6940632829967916500000000000000,0.3685269248314477800000000000000,-0.3210416011890694900000000000000,0.1982129812483723600000000000000,0.427916641501301600000000000000,-0.05420745737394944800000000000000,-0.2084835269535824900000000000000,-0.1961163501526475800000000000000,0.1257296578213029100000000000000,0.1568368480912540600000000000000,-0.1913738305171027700000000000000,-0.046917639234416900000000000000,0.1084371185260311300000000000000,0.03690749009699491300000000000000,0.4720746619281351900000000000000,-0.1086980835275254300000000000000,0.7131505337892067900000000000000,0.179670793318904700000000000000,0.2146749020815647800000000000000,0.05304589866492880800000000000000,-0.3389366287264841100000000000000,0.03848647722318834100000000000000,-0.4486308912929126700000000000000,0.2726043137893725500000000000000,-0.03909024188511216900000000000000,-0.1290227683712639700000000000000,-0.01065624560352256700000000000000,0.137221109372266200000000000000,-0.6107957884734611700000000000000,-0.0403469038057027300000000000000,0.5286381056353002300000000000000,-0.06931471971415401100000000000000,0.3508621575455362900000000000000,0.2275029340180621300000000000000,-0.297912823585801900000000000000,-0.2911978306741240300000000000000,0.1196878900371598500000000000000,0.1241860866417907600000000000000,0.06873897455272678900000000000000,-0.6236000315421815800000000000000,0.4084243915944259500000000000000,-0.2947085900935962900000000000000,-0.07785999749680638800000000000000,0.2090860061249642500000000000000,-0.1125332746441052300000000000000,-0.156427277674245800000000000000,-0.5399355243130625800000000000000,-0.2251958637294425300000000000000,-0.02603998047559203900000000000000,-0.19852490885783300000000000000,0.6718881525229387600000000000000,0.1437415423052341700000000000000,0.2925911621209045200000000000000,0.2141474322532603800000000000000,0.05209353382664351500000000000000,0.335196695344013200000000000000,0.28575363179904500000000000000,-0.06150850033288512300000000000000,0.4072942888024811400000000000000,0.1637461074815590400000000000000,-0.2922506352118587300000000000000,0.3866276848205078600000000000000,0.2761979297225841100000000000000,0.2553765038265484200000000000000,-0.3057897759796027200000000000000,-0.0544734026914455300000000000000,0.6312602882282948300000000000000,0.5324779868883012800000000000000,0.1300725371777645700000000000000,0.179081805651411100000000000000,-0.2806091457044048200000000000000,0.2216432905204218100000000000000,-0.5856447036640201100000000000000,-0.3339113551151365300000000000000,-0.246482229538912500000000000000,-0.009568118307386106600000000000000,-0.3263606673615548300000000000000,-0.1567745460574191700000000000000,-0.4310776714400329500000000000000,-0.1692554976309806100000000000000,-0.2456146621814300500000000000000,-0.05961973471134814100000000000000,-0.3475473993005524500000000000000,-0.2086197684210445700000000000000,0.4084927345203597200000000000000,-0.05838857135570120500000000000000,-0.3233337189086218900000000000000,0.04040736557531442200000000000000,-0.2153057788721188800000000000000,-0.3157103407120285800000000000000,-0.2897986596600064500000000000000,0.06503284219058677600000000000000,0.03150576019640999300000000000000,0.003207224699122670600000000000000,-0.2430751586008096100000000000000,-0.01742037217289786300000000000000,-0.2467795213354123400000000000000,-0.2891140454437619600000000000000,-0.1855643721810564500000000000000,-0.01494830884989881500000000000000,0.04640635531956684900000000000000,-0.06038867036952465900000000000000,0.8771913902063899200000000000000,0.06446246815536874100000000000000,0.1044119513882360600000000000000,-0.2702234156894013400000000000000,-0.1386754913709682400000000000000,0.09769252133873325400000000000000,-0.2383512041479790600000000000000,0.0927168527477538200000000000000,0.0004068055370111432300000000000000,-0.05278559868954197500000000000000,-0.369329961981554600000000000000,0.395323153537191500000000000000,-0.09361464176365812100000000000000,0.00354890125816620900000000000000,0.7027512088667786600000000000000,0.115543498687584900000000000000,0.5356300766393127200000000000000,-0.03249002922961562200000000000000,-0.06864079559082784900000000000000,-0.3985967869098507900000000000000,0.06740656670763138500000000000000,0.09032234320609711100000000000000,0.2756678349997328500000000000000,0.01917705194316086600000000000000,-0.2921522115557148600000000000000,0.2897729144973119600000000000000,0.2028529113354367300000000000000,-0.5437749544865455600000000000000,-0.3197462301921201200000000000000,0.429729561892024600000000000000,0.3342272727543871300000000000000,-0.1123233350479517400000000000000,0.07671002065016102600000000000000,-0.1277080843509809700000000000000,0.3791170811194250500000000000000,0.2270274240193452500000000000000,-0.0909159543302140300000000000000,-0.1650519889077399500000000000000,-0.2410811297831290400000000000000,0.3487416198300468700000000000000,0.09603822261266928300000000000000,-0.0516744831433179200000000000000,-0.3551797300427548800000000000000,0.2024133493843096600000000000000,-0.1724421508565211200000000000000,-0.3361150312709217400000000000000,0.6914914493055291900000000000000,0.2817276900095197500000000000000,0.1271561802301292300000000000000,0.2565254443360906500000000000000,0.01136845864780728800000000000000,0.2992304249722409500000000000000,-0.2319840025981972900000000000000,0.4008511908359959100000000000000,0.2341739525275393100000000000000,-0.122789338461194400000000000000,0.2034091726166941100000000000000,0.4075991755391459300000000000000,-0.1240911903771134300000000000000,-0.2240702486546609100000000000000,-0.5407552665312851400000000000000,0.1661433524356183400000000000000,0.4530064527107630100000000000000,0.04722359397026697900000000000000,0.3884398457840678200000000000000,0.04713495528507842500000000000000,-0.04157640877242319700000000000000,-0.403084044073379500000000000000,0.1461018420286599500000000000000,0.5427018650997468300000000000000,0.3300031178472918600000000000000,0.0129992311284473400000000000000,0.2905399224467344300000000000000,0.3372694319569735600000000000000,-0.2559194295993218500000000000000,0.1316580146599377600000000000000,0.2226942976692508600000000000000,0.07322614623266830700000000000000,0.08741636495913693300000000000000,0.1372776326521759100000000000000,0.4914558269471539500000000000000,0.1186023274880445800000000000000,0.6037859604537001400000000000000,0.0009643622310004613500000000000000,0.1217451612778468100000000000000,0.406580784155667900000000000000,-0.1823109283870741600000000000000,0.2801780746072870500000000000000,0.1161327274952444100000000000000,-0.3671435910023824700000000000000,0.4663888439232410900000000000000,-0.005106497799580361800000000000000,0.1503533209424263200000000000000,-0.0754575592618126900000000000000,-0.190927004689992600000000000000,-0.1055433019267150400000000000000,-0.03596585473529156900000000000000,-0.2495467945159909600000000000000,0.1348475195743125400000000000000,-0.1101832463222481300000000000000,-0.002345192059662683900000000000000,0.07499147339446442200000000000000,-0.314806664628956900000000000000,0.1771203625205608200000000000000,0.5637004247884880300000000000000,-0.2502245578325713600000000000000,0.4990808564208046900000000000000,-0.1482254759965151400000000000000,0.1366851273902816600000000000000,0.05595151153249819400000000000000,-0.4776786095875580900000000000000,0.2449200394484707700000000000000,-0.1039571262828911400000000000000,0.3258973613571383200000000000000,-0.218884128079420700000000000000,-0.1501931035896626700000000000000,0.2707959421031641600000000000000,0.1554070982968646100000000000000,0.0838610803331947400000000000000,-0.7481314565220017500000000000000,-0.08555248493506750800000000000000,0.04072562977321273600000000000000,-0.01283636634012574700000000000000,0.09079694248586402100000000000000,-0.275417849997158400000000000000,0.03075230020048982900000000000000,-0.3057819581404590500000000000000,-0.1773858328248285600000000000000,-0.4062066581981008100000000000000,-0.1872737282731164700000000000000,0.02389625692772209800000000000000,0.1969617235666082900000000000000,0.1666313280904936900000000000000,0.06697349280222851500000000000000,0.1422759895321376900000000000000,0.3849953458035339500000000000000,0.7347656363160841600000000000000,0.4789875421158099600000000000000,-0.1946720211312550400000000000000,0.01562020620596418900000000000000,0.09166392580809207300000000000000,-0.0860201587747601300000000000000,-0.07291600046311773300000000000000,-0.05777319685246792800000000000000,0.1453294289890885200000000000000,-0.1823377970346530500000000000000,0.09488356598521982500000000000000,0.04862196325642840300000000000000,-0.5412304082831352900000000000000,0.269915870898674300000000000000,-0.4958915413344964200000000000000,0.2001959694873336500000000000000,0.3861668697239189500000000000000,0.2194157505917913600000000000000,-0.09665475749634126800000000000000,0.09604893631820206300000000000000,-0.01588323903250256700000000000000,-0.348359816956315900000000000000,-0.3213698023266057800000000000000,-0.3519017230139226400000000000000,0.3293172183796987400000000000000,0.1561651550898279500000000000000,-0.01760294026869168800000000000000,0.05711005892432861900000000000000,0.3379546164157705700000000000000,0.1716862910424676300000000000000,0.2848423182043882100000000000000,0.08528084723297889300000000000000,0.01005403161504200700000000000000,0.04428378896820130800000000000000,-0.4942608019093007200000000000000,-0.2861350011694093800000000000000,-0.1209193405247650900000000000000,-0.157835265664062700000000000000,-0.1985688500611623200000000000000,0.0326747101784125300000000000000,-0.2132835157205679500000000000000,0.1130248135851510500000000000000,0.1343958433339869900000000000000,-0.2843827689850611500000000000000,-0.0649290771363661700000000000000,-0.05911328361825725400000000000000,-0.5667712070384420800000000000000,0.2911986788864133800000000000000,0.06348733512526644200000000000000,0.02067561335239483400000000000000,0.3589182316209317300000000000000,-0.2492779695552323800000000000000,0.2651621957034674400000000000000,-0.0790953968535251100000000000000,0.04608531946305813300000000000000,0.4490929618619297100000000000000,-0.1817055419741476800000000000000,0.3876431224018894700000000000000,-0.4341829612006466400000000000000,-0.143475041028794300000000000000,0.1518710822953801800000000000000,0.06512985673039993500000000000000,0.1605783899381290100000000000000,0.102281048522251800000000000000,0.007811525992476007300000000000000,-0.0706272924977109500000000000000,-0.006866915909886965600000000000000,0.0207982490196989800000000000000,-0.04570131990332143600000000000000,-0.2849217250842349100000000000000,-0.03678169308446395400000000000000,0.01545605738961063600000000000000,0.02537464103752684600000000000000,0.3110616724788526900000000000000,0.1619296025536531600000000000000,0.2728481825259891400000000000000,0.20367252743034700000000000000,-0.06233913509531940200000000000000,0.1369369168726407300000000000000,0.8118805531725070700000000000000,0.2069894057979260700000000000000,-0.0516537968134918800000000000000,0.2018863603358713200000000000000,0.3307497166439060700000000000000,0.2243164575360681600000000000000,-0.1426280460528393500000000000000,-0.4439528053230728500000000000000,0.007204731746995078400000000000000,-0.4260175609682074800000000000000,-0.4215947779829942700000000000000,-0.2050467742450755600000000000000,0.1502113624908246500000000000000,-0.1221484753156524800000000000000,-0.08318635190862895500000000000000,-0.09349099453178537400000000000000,-0.1333114750946403600000000000000,0.7194739592904452200000000000000,0.3016025785324671400000000000000,-0.2540984819572063600000000000000,0.377881699121897900000000000000,0.2447387623058320200000000000000,0.002389660280394594300000000000000,-0.08879306179753362900000000000000,-0.08579462516881115900000000000000,0.2198807396818906700000000000000,0.2454632200316418700000000000000,0.09981010131126949500000000000000,0.08985230108476717500000000000000,-0.02227054465360435400000000000000,-0.2017830845873987700000000000000,-0.1534523704091484100000000000000,-0.3435497345244407100000000000000,-0.1659226930889811900000000000000,-0.1176672816947909200000000000000,0.6442980140979329700000000000000,-0.103911748948833900000000000000,0.05227618152400870200000000000000,-0.4679771997882105100000000000000,0.02297717418604233400000000000000,0.06514686696690097400000000000000,-0.6664245233108735400000000000000,0.06075004685847962300000000000000,0.06697097520960626500000000000000,0.02335932176475155300000000000000,-0.3580905149123481100000000000000,0.2193805258556370500000000000000,0.139165843141736300000000000000,-0.019181343433088600000000000000,0.5641546591272228500000000000000,0.4080718896165723700000000000000,0.6194456697139163500000000000000,-0.2004989366568854200000000000000,-0.1893257642456080100000000000000,0.03575277676550325800000000000000,-0.03142914769271536900000000000000,0.0003956424283131757600000000000000,0.1661673888805232400000000000000,-0.4612826888270890600000000000000,-0.3879356031882757500000000000000,0.1095611849645287800000000000000,0.6306097050531582800000000000000,-0.1149965759320670100000000000000,-0.2931323354970237800000000000000,0.1600548369649683600000000000000,0.2640876445269724200000000000000,-0.1580923335530451400000000000000,0.4845336389966732900000000000000,-0.2580897887990406500000000000000,-0.3679212813026205800000000000000,0.5679263751464594900000000000000,0.1373104243375925200000000000000,0.3399903076103661400000000000000,-0.3611115562850817900000000000000,0.06427326882960741900000000000000,0.03310969001553728400000000000000,-0.3979048355146700400000000000000,-0.2972850791602689200000000000000,0.02075333938630899100000000000000,-0.2652211454756186500000000000000,-0.4355727753444514300000000000000,0.3627862167953137500000000000000,-0.1196336061313785500000000000000,-0.03177646995077857600000000000000,0.2721663808757425800000000000000,0.02273958656887745100000000000000,-0.02141258127082807200000000000000,-0.09301354753835121300000000000000,0.0640340866403056600000000000000,0.01997172018361943400000000000000,-0.1835471508932308100000000000000,0.01011331455871883500000000000000,-0.1419290503688210300000000000000,-0.4969113714716884600000000000000,0.1475058690902639500000000000000,-0.7927306382051205700000000000000,0.2766995035622636900000000000000,0.07296117188903258900000000000000,0.2571824786328220100000000000000,0.2188926401079362700000000000000,-0.3136181555942761900000000000000,-0.2134738439362400800000000000000,-0.2863106523777610400000000000000,0.5178210344878535500000000000000,0.6990011280463873700000000000000,0.2595608806856093400000000000000,0.1653719498676189700000000000000,0.01452165668372749900000000000000,-0.1687565206948037600000000000000,-0.197806906577944700000000000000,-0.2894854800886331200000000000000,0.04611360696586543800000000000000,-0.05584029900015311700000000000000,-0.5320983961281421400000000000000,-0.05637241208982183400000000000000,0.3256492080449765500000000000000,0.2929220175914988800000000000000,0.5122818267066062700000000000000,-0.1202897654401418500000000000000,0.4947864537086817900000000000000,0.4612977490249619600000000000000,-0.1428502345574040600000000000000,0.3571465885553152300000000000000,0.0749430660979157200000000000000,-0.4890456062328972200000000000000,-0.2840505862768831800000000000000,-0.06592603353169652900000000000000,0.2991094383627623300000000000000,-0.01810614166910834800000000000000,-0.009732221501761704300000000000000,0.1675965549327373400000000000000,0.1783786582399034500000000000000,-0.2100499585940968600000000000000,-0.1211003320014319300000000000000,-0.6508937457692486300000000000000,-0.4248964157611737600000000000000,-0.09140212338391003100000000000000,-0.08884634715267412900000000000000,-0.04680608218228458900000000000000,0.2846612711353572200000000000000,0.09136205161605243100000000000000,0.0723322743162618800000000000000,-0.2784298280421584900000000000000,0.02035649191859835100000000000000,-0.1698598351155723400000000000000,-0.3827156766343376400000000000000,0.1677901303268193600000000000000,-0.6750898415890054200000000000000,0.1880221450955104300000000000000,-0.4027001976410524700000000000000,-0.2771650807049557100000000000000,0.140838085166368500000000000000,0.1684626855229859100000000000000,0.07872890399147006200000000000000,-0.3318325632509003300000000000000,-0.5108960735399478100000000000000,0.2572733420185577800000000000000,-0.004658601427531064400000000000000,-0.3042009883334599300000000000000,0.1827258791771635100000000000000,-0.1478617537303053600000000000000,-0.4464530264200882700000000000000,0.1914215096307339800000000000000,-0.2648158538060431700000000000000,-0.296552984396705800000000000000,-0.3877133687258172400000000000000,0.5716240146686093500000000000000,-0.03934927441051321700000000000000,-0.356502641269006100000000000000,-0.1495323858094018700000000000000,0.04121357260419582200000000000000,0.5684676105837251900000000000000,0.131967870779652500000000000000,-0.3279594282497473300000000000000,0.0829172084747356600000000000000,0.6057373297526437200000000000000,0.3337258227759588600000000000000,-0.1855615713953789300000000000000,0.2964291335005477800000000000000,0.1828424329981537800000000000000,-0.1580449931430378500000000000000,-0.08352595925038630600000000000000,-0.1253057946076953600000000000000,-1.113073913409363500000000000000,0.1478680042308874500000000000000,-0.3357283819368142600000000000000,0.05045947792612167500000000000000,0.3345607700951623900000000000000,0.4710236096162729900000000000000,0.4968497848359984500000000000000,0.03839622155299362400000000000000,-0.4531584008980652500000000000000,-0.245939558842907300000000000000,-0.0384935926641165600000000000000,-0.2988289160520691800000000000000,0.140145344053870500000000000000,-0.1407121046933929600000000000000,0.08843075349735948800000000000000,0.4046632695058419700000000000000,0.174721885200877200000000000000,-0.1378942466447596300000000000000,-0.0818065320784738400000000000000,0.1766988420871770100000000000000,-0.2130741615753599900000000000000,-0.2374957445853253800000000000000,-0.4497536710520769200000000000000,-0.4959193006960029300000000000000,-0.4143911210688906400000000000000,-0.1173460086422096100000000000000,-0.3490973239161259100000000000000,-0.01496900023578433400000000000000,-0.2770786374618753900000000000000,-0.156496147353446300000000000000,0.1062975404650396700000000000000,0.02317702862823022400000000000000,0.4577254179673915800000000000000,-0.07723517547338079600000000000000,-0.3336922388361209800000000000000,-0.1312027896924746800000000000000,-0.01947458690999154300000000000000,-0.4841130274175580700000000000000,0.0448813705683696400000000000000,-0.2333603807626519800000000000000,0.1295139003120099100000000000000,-0.1609912425011935400000000000000,-0.1027974237958486900000000000000,0.005070129274934712600000000000000,-0.2683614792247685500000000000000,0.8162040033796368300000000000000,-0.7176749349220191700000000000000,-0.3775475668299920200000000000000,-0.2432471681191712400000000000000,0.5457732028667006100000000000000,0.207580258287725500000000000000,0.05009356770455652300000000000000,-0.4186143286815045500000000000000,-0.04609540346119339600000000000000,-0.35772327606123600000000000000,-0.005236007499775945400000000000000,0.4280907041648177600000000000000,0.137372315260927800000000000000,0.2977045996414147700000000000000,-0.2696652569164366100000000000000,0.1827404525295826800000000000000,-0.05593215889286179400000000000000,-0.4704003953993823300000000000000,-0.181086464554446800000000000000,0.1568648477576114200000000000000,-0.1337490639508599800000000000000,0.1468906345168883900000000000000,0.1381567935003476500000000000000,-0.1198053914646691900000000000000,-0.04068454229576345900000000000000,-0.2256464277267318500000000000000,0.003909871462455060900000000000000,0.1813758470591972100000000000000,0.2746014379095955700000000000000,-0.2426772872211894200000000000000,-0.1614379366378106100000000000000,-0.1796570102021096400000000000000,-0.2193478950085292800000000000000,-0.2961756695909637500000000000000,0.3390648329389534500000000000000,0.3294946729722754700000000000000,-0.3554388428290728400000000000000,-0.1332907478972506500000000000000,-0.1165335548425955600000000000000,-0.2472148608787790900000000000000,-0.1251516983484675700000000000000,-0.1090613797477477700000000000000,0.232367788502320200000000000000,-0.08804382212826455900000000000000,0.06476792279084203600000000000000,-0.2025145891336397100000000000000,-0.2663947695558698300000000000000,-0.0160739028061819900000000000000,-0.02693885501230998100000000000000,0.2709694016541472400000000000000,0.1172268560968370600000000000000,-0.3981795281936031400000000000000,-0.2733169300324506700000000000000,-0.3589798636185467800000000000000,-0.0776360235643606400000000000000,0.3349157462005922200000000000000,0.0763484529803779700000000000000,0.6829617853458962400000000000000,0.07603508852536992900000000000000,0.6213069918123773600000000000000,-0.3047677087231891500000000000000,-0.2997954813516031700000000000000,0.04538742508142214200000000000000,-0.5288138522233243300000000000000,0.007390133172395295200000000000000,-0.2567517629251575600000000000000,-0.3029986802258168900000000000000,0.1948928512554914700000000000000,0.1183079362306359200000000000000,0.8325358046014358400000000000000,-0.3159847197102266200000000000000,0.2222664657666290900000000000000,0.3312748066835555800000000000000,-0.1802297814188956700000000000000,-0.3343282762638485300000000000000,0.1303169492555464600000000000000,-0.5250093651010261400000000000000,-0.2390234761561227100000000000000,0.1506340759120054500000000000000,-0.375157827221022700000000000000,-0.3463369358220935700000000000000,-0.0212909817145742200000000000000,-0.1205135421746938900000000000000,-0.06809527882356014600000000000000,-0.102449378479360100000000000000,-0.4689620442105330600000000000000,0.5579137475492924600000000000000,-0.1041356582976124500000000000000,-0.05470473196350153500000000000000,0.1925001108081564600000000000000,-0.2797909811029095600000000000000,-0.09662723659773349300000000000000,0.4690802806013220100000000000000,-0.8102834091917856500000000000000,-0.2341551189816525300000000000000,-0.4927827789117501500000000000000,-0.3586046720207250500000000000000,-0.2841612911334108800000000000000,-0.488917830716743500000000000000,-0.6481424741206783800000000000000,-0.4517564758122601400000000000000,0.3135478387166402700000000000000,-0.4047369794228698500000000000000,-0.09294509852593527100000000000000,-0.1179758824554828100000000000000,-0.3346899251311106200000000000000,0.2879915842667248300000000000000,0.2418440823232389800000000000000,0.3345800009783507800000000000000,0.2546033419546207500000000000000,0.01333654631188385200000000000000,0.2044639850118476500000000000000,0.1604891533840138200000000000000,0.2215821970802451500000000000000,-0.1653397899835588300000000000000,-0.4842762356140825100000000000000,-0.1627672368669603500000000000000,-0.446065953216026100000000000000,0.002791482888613041300000000000000,-0.6634657543108013500000000000000,0.4196658621272402200000000000000,-0.08157948365309264400000000000000,-0.305272833681530800000000000000,-0.1482703240948274300000000000000,-0.8336218334727141200000000000000,0.2376356874366965800000000000000,0.9152252394379952700000000000000,0.6486352141226933200000000000000,0.01810530915784493200000000000000,0.1488602550495527200000000000000,-0.2032805528394147600000000000000,-0.1157213063549553700000000000000,-0.1354503632708224400000000000000,-0.00505791994980066100000000000000,-0.107127354162722500000000000000,-0.09769927424209934300000000000000,0.2982484278628761400000000000000,0.4365162241975538100000000000000,-0.3032679565312383400000000000000,0.2504947866066973800000000000000,0.3957367105751334300000000000000,0.3493890656307260300000000000000,0.5038427503406126600000000000000,0.0301757299062777700000000000000,0.4307753608386460900000000000000,-0.09204214139248505200000000000000,-0.610996337517054400000000000000,0.1105638622139266900000000000000,0.02422652618203284200000000000000,0.3074257680023418400000000000000,-0.2364047024385792200000000000000,-0.06312517439669183800000000000000,0.12256861355646900000000000000,0.06848372353249926300000000000000,-0.5331677738554421200000000000000,-0.1047201807178574200000000000000,-0.5656628081869263800000000000000,-0.4647454200297167500000000000000,-0.2717137756528043600000000000000,-0.05122871121065850800000000000000,-0.08009265434353052300000000000000,0.3792796915059254400000000000000,0.2062739171496703900000000000000,0.3383474165884177200000000000000,0.1715364051040990100000000000000,-0.1974861552181401100000000000000,-0.08566868602005750500000000000000,-0.7121413487955650100000000000000,-0.2637815551059085600000000000000,0.05082802696305521700000000000000,-0.5843031252791862600000000000000,-0.605796176361016900000000000000,-0.2313745712085866200000000000000,-0.08289593127483409200000000000000,-0.07830468729079834200000000000000,-0.115798358117302200000000000000,-0.7837310543728128700000000000000,-0.5296528988063574600000000000000,0.3034796353248678200000000000000,0.2510040174339581700000000000000,-0.4143880453137975300000000000000,-0.009996924629073481600000000000000,-0.06305087544270228400000000000000,0.04912951004272268100000000000000,0.3739857887870455800000000000000,-0.2418253324905998400000000000000,0.01350358811148223200000000000000,0.1674923703765192100000000000000,0.2534227716524722900000000000000,0.06305316045682511600000000000000,-0.02213273664885155900000000000000,-0.1318813510447550400000000000000,0.2973592722929491700000000000000,0.3545757956425899500000000000000,-0.08603484486630988400000000000000,-0.06487156278567922400000000000000,0.09961559376194170600000000000000,-0.07001567415087012200000000000000,-0.4137288003355079600000000000000,0.1715283001281481300000000000000,0.1132541194479473600000000000000,-0.1516594051200946300000000000000,-0.3308182391821740700000000000000,-0.2278385208745934100000000000000,-0.2967687822424677800000000000000,-0.6951318756239904800000000000000,0.178157973033214400000000000000,-0.1847385495456954400000000000000,0.379372873578770700000000000000,0.2379707906710783700000000000000,0.2479732422919615800000000000000,0.06441744909240934600000000000000,-0.009329577218961448300000000000000,0.005636040375383100600000000000000,-0.3341368477559840700000000000000,-0.07312965296062523500000000000000,-0.4571478394242735100000000000000,-0.09778238701374725200000000000000,-0.340114428399215800000000000000,0.137514509640031700000000000000,-0.3490533808128136700000000000000,0.149219266337388300000000000000,-0.1372492056475233800000000000000,0.3165354185327590700000000000000,0.07036638478906236100000000000000,-0.04352189438413656100000000000000,-0.3173233399624861800000000000000,-0.5760668421814669800000000000000,-0.0891952977225357600000000000000,-0.1641260280027389800000000000000,0.01904724718670779500000000000000,-0.5369248033451192700000000000000,-0.611167062733206200000000000000,-0.2206810442164280400000000000000,0.1170398243820902200000000000000,0.3213259227699599700000000000000,0.2128724658889105700000000000000,0.1439095728826632900000000000000,-0.3703221654805354300000000000000,-0.2483105323396906900000000000000,-0.1495162673761309100000000000000,0.02091464620552918600000000000000,-0.1903775688598248200000000000000,0.08615337326539268500000000000000,-0.1706661793795299100000000000000,0.3937685825283466200000000000000,-0.5061448976312176200000000000000,-0.3287759479214120200000000000000,0.01555529872444357500000000000000,-0.270874167821047900000000000000,0.7857875642676618300000000000000,-0.7195001187210154900000000000000,-0.3216191889243317800000000000000,-0.5535356022086664900000000000000,-0.2105390844118923700000000000000,0.2782628824511864100000000000000,-0.1402807117819721800000000000000,-0.1372938967836066500000000000000,0.03391221959609920500000000000000,-0.5911436696713946400000000000000,0.2187101213185377600000000000000,-0.01730811564681215100000000000000,-0.04210413230084089600000000000000,0.3609056634383139300000000000000,0.01453047933599292300000000000000,0.2730135203245824300000000000000,0.3231120748319181700000000000000,0.1667588720876883600000000000000,-0.1559357505464277500000000000000,0.1019226607401598300000000000000,-0.02002250017820570900000000000000,0.09653848245183473100000000000000,0.3006558366252651300000000000000,-0.1051077950531736800000000000000,-0.009845861536102125400000000000000,0.1151844702246029700000000000000,-0.05794737159622816900000000000000,-0.3233779917137417100000000000000,-0.2550120946631316800000000000000,-0.7751514163266085600000000000000,-0.3741597411406470400000000000000,0.3107994653872731500000000000000,-0.2587358089258444700000000000000,-0.2353712509739975800000000000000,0.1451096565697000700000000000000,0.3284630017572260400000000000000,-0.4677077003496432600000000000000,-0.2602272439911762500000000000000,0.2925289658783834500000000000000,-0.1318214974797902700000000000000,-0.1030043842291141800000000000000,-0.3810811341759829400000000000000,-0.0636272710095039800000000000000,-0.1568724424701827500000000000000,-0.1150933780588714700000000000000,-0.2826856732308776800000000000000,-0.03230660161859798300000000000000,-0.1058666566799916500000000000000,-0.08489033812647822600000000000000,-0.2693486114598451800000000000000,-0.002166481303862174200000000000000,-0.438229671059944700000000000000,-0.1965520859443582500000000000000,-0.1732305786872902800000000000000,-0.8807909744619764100000000000000,0.5167852386880459300000000000000,-0.1006518546096619900000000000000,0.5076789521097981900000000000000,0.2593524880447581900000000000000,0.01631138474461515600000000000000,0.02113471477522624700000000000000,-0.351713295854274300000000000000,-0.06395893557360525500000000000000,-0.5405195404103397800000000000000,-0.02529712702105568400000000000000,-0.2008670217111154200000000000000,-0.2302477102368641100000000000000,-0.1867931306376716100000000000000,0.06446497360989843200000000000000,0.09600334111611168200000000000000,-0.03075419955476316500000000000000,0.2751644617866865800000000000000,0.09235105065562579400000000000000,0.02434490578800021400000000000000,-0.310673230700675100000000000000,-0.000734437137862492800000000000000,-0.2077298015639762500000000000000,-0.2220578062544342500000000000000,0.03171034430409532700000000000000,-0.2703594944817600500000000000000,-0.1408800298993639100000000000000,0.1177428821104086300000000000000,0.06759050464355545500000000000000,0.1030152086378770400000000000000,-0.1276628567087823600000000000000,0.1003737190406784900000000000000,0.529688350319167500000000000000,-0.5619384599149733800000000000000,0.3309254926358467500000000000000,0.2150666479743797400000000000000,-0.4009326160074387400000000000000,-0.2365006356373295400000000000000,0.4924891481972907800000000000000,-0.2066686482978535600000000000000,0.141178036187908200000000000000,-0.4076856767400135500000000000000,-0.3833163114577746700000000000000,0.2906701334131524500000000000000,-0.825124110734781200000000000000,-0.5771158778289181600000000000000,-0.1984534017795428500000000000000,-0.1186432713100679200000000000000,-0.5878044210845895200000000000000,-0.13308990855263800000000000000,-0.1893434472531868900000000000000,-0.6875367575739803600000000000000,0.02570634360495162300000000000000,0.3028620861505372200000000000000,0.2492537048720210600000000000000,-0.116211436698926900000000000000,-0.1674890660380985700000000000000,-0.04807820271715633500000000000000,-0.0462370588704223500000000000000,0.3635511297159056400000000000000,-0.45367803693294900000000000000,-0.4295418562489257100000000000000,0.06242591822650790700000000000000,0.03887483300434840100000000000000,0.2534631394724916600000000000000,-0.3315036552534736400000000000000,0.4502273139892900000000000000,0.03044646823526686600000000000000,-0.1344909824172112700000000000000,-0.07110849450647871400000000000000,-0.01393674828135694700000000000000,0.4347359871790407700000000000000,0.7787419895248917100000000000000,0.2874630135059991800000000000000,0.6482601002176380200000000000000,-0.1448804127595838300000000000000,-0.4469322155856738100000000000000,0.08457267572258601900000000000000,-0.3922867149461016200000000000000,-0.00287260486804606600000000000000,-0.06725108035499288700000000000000,-0.1947965396789537200000000000000,-0.04418516537544902500000000000000,0.3592435147647418700000000000000,0.2328914182927221100000000000000,0.3489587685441705700000000000000,0.5044925353048851400000000000000,0.871195044345980500000000000000,0.2095428732103152300000000000000,0.08158906791133714600000000000000,0.2530740645741025900000000000000,-0.2694085613086389900000000000000,-0.3643168156393902800000000000000,-0.2320928118473943300000000000000,-0.1317269066816730800000000000000,0.3113957896787236700000000000000,-0.04222480017192906800000000000000,-0.1188285401853866300000000000000,0.009879707521841630400000000000000,0.2553333106514871200000000000000,-0.5411689965950398100000000000000,-0.160498671569162200000000000000,-0.7526607594287295600000000000000,-0.2781519215022952300000000000000,-0.1715493679052916800000000000000,-0.1793203718253814400000000000000,-0.5308134244815242400000000000000,0.2584694927645843600000000000000,0.1463777524679491500000000000000,-0.1974394941026558500000000000000,0.2033079149363172800000000000000,0.1262927123039826500000000000000,-0.09316599509945792900000000000000,-0.2605363462318402400000000000000,-0.1746635821180155500000000000000,-0.2076092340335668200000000000000,-0.5715700262777598800000000000000,-0.06610789170632608300000000000000,-0.1448520774853766800000000000000,0.1024878102666982300000000000000,-0.07060622286724262100000000000000,0.1846538698738890100000000000000,-1.284519999088797200000000000000,-0.3960787550800345400000000000000,-0.1971626965153831800000000000000,0.2500310895411638200000000000000,-0.3899686474303865100000000000000,0.5743552881376273700000000000000,-0.2673551438015332500000000000000,0.1435940819710212200000000000000,0.1748254939551204300000000000000,-0.1878180277138087900000000000000,0.120933927385820400000000000000,0.1281065993007576800000000000000,0.1156004710939641200000000000000,-0.1476875173368966400000000000000,-0.5553418381926312800000000000000,0.05502721177375448400000000000000,-0.1026632747812953300000000000000,0.3057715747047748400000000000000,0.3800143829874950700000000000000,-0.281033982345100800000000000000,-0.008397538821885163600000000000000,0.1212469982057057100000000000000,-0.03748634666267842300000000000000,-0.7337607300500844600000000000000,0.03851148157590021700000000000000,-0.1452550824560999200000000000000,-0.3073187596201200600000000000000,-0.5433414338725406400000000000000,-0.2713577381234250100000000000000,-0.5288107340575022300000000000000,-0.009866968283557658500000000000000,-0.1961357518196094600000000000000,0.128922082825892900000000000000,0.3176873073110669800000000000000,0.05996644983072377300000000000000,-0.008480707848920321700000000000000,-0.02347851451078919500000000000000,0.02625895316504311300000000000000,-0.2327222623968192300000000000000,-0.1340382010139322100000000000000,-0.1885455516512373500000000000000,-0.4848071375748750900000000000000,-0.5026416966959901300000000000000,0.6729695946443984300000000000000,-0.07998133752309913300000000000000,0.329623732203902900000000000000,-0.1945181690003060200000000000000,0.03877772583414602200000000000000,0.3037969925203347100000000000000,-0.6957828990446215400000000000000,-0.08915399587609110200000000000000,-0.1577499587920618800000000000000,-0.5297689337576275700000000000000,-0.2715899341560151200000000000000,0.7284695087109176500000000000000,-0.2843926649623840800000000000000,-0.6276713258988239100000000000000,-0.04629885604452483500000000000000,0.3029066341055041700000000000000,-0.05659478621157861700000000000000,-0.05780300180576641200000000000000,-0.07315704385942142800000000000000,0.1196725449534105800000000000000,-0.4084613756340042500000000000000,0.3660206941455247400000000000000,-0.1476007437562668100000000000000,-0.8621169183744835700000000000000,-0.1623500945193051300000000000000,-0.04406941785836396300000000000000,0.5432352143913425900000000000000,-0.06458601682172131200000000000000,-0.3723319016594031600000000000000,0.105221413213478300000000000000,-0.0618200529766494700000000000000,0.7165992236567578800000000000000,-0.6826304782081786800000000000000,-0.2902460945120525200000000000000,-0.0771739318522275400000000000000,-0.1403544802032660200000000000000,-0.4223498271364369800000000000000,-0.01940042114871741800000000000000,0.1160898122014763100000000000000,0.1137574285646907300000000000000,-0.9199696459110876500000000000000,-0.4681144577095274800000000000000,0.3249410005985726700000000000000,-0.1931486442893904900000000000000,0.318439446126874800000000000000,0.3102309555744974200000000000000,0.65655036412890400000000000000,0.1233338165116385900000000000000,0.1366580416569523600000000000000,-0.1567242232114536600000000000000,0.09811276561727959300000000000000,-0.02325355686293392700000000000000,-0.05421130991069493500000000000000,-0.3929102072207562600000000000000,-0.05977413366676147900000000000000,0.03181717058933417100000000000000,-0.08404810189924254200000000000000,-0.2878737900854472200000000000000,-0.7758923613602193300000000000000,-0.3092261167375884300000000000000,-0.3598760782617918500000000000000,0.1038354880662934200000000000000,-0.2721595991649310400000000000000,-0.24743046178402800000000000000,0.002220031830165742500000000000000,0.2168117236210025900000000000000,0.09095464466260348700000000000000,-0.2199795736424277300000000000000,-0.0307232698495108900000000000000,0.1334872524371326400000000000000,-0.6022488618985104600000000000000,-0.1786931385198548500000000000000,-0.2822455886496824700000000000000,-0.2693305368167927500000000000000,-0.2117998692172710900000000000000,-0.1992071396689367700000000000000,-0.03387555095837814500000000000000,0.2563947126124562800000000000000,0.0155815242512576600000000000000,0.1452401404619941300000000000000,-0.4698673496166935200000000000000,0.1394488544425229500000000000000,-0.1061986640085646500000000000000,-0.3596615344106475800000000000000,-0.4347141705728549400000000000000,0.04151078008916787200000000000000,0.3550221098191230800000000000000,0.1684951547297721700000000000000,0.2822451421699095900000000000000,-0.03977700511046313600000000000000,0.005334469887842214300000000000000,-0.424319261215496400000000000000,0.04541175296373312100000000000000,-0.1328095164731730700000000000000,-0.5156608504330298900000000000000,0.08361488419346876900000000000000,-0.3128534744815492100000000000000,-0.1092488208613605800000000000000,0.02174006713409325200000000000000,0.109253871047572100000000000000,0.3271546151141969100000000000000,0.2044446445328476100000000000000,0.3563369594914901400000000000000,-0.2404431493091106800000000000000,-0.09768859832594663200000000000000,-0.3467140284709442900000000000000,-0.2250942502102720500000000000000,0.5789485567445187300000000000000,-0.1166372389506870900000000000000,-0.2132344329292291100000000000000,-0.5281902184735580700000000000000,-0.2864323438611218200000000000000,0.04722596816301953500000000000000,-0.134369491444098100000000000000,0.1573605690805315600000000000000,0.02430743381263732200000000000000,-0.2618626724495500800000000000000,-0.06952911352169562100000000000000,-0.1707083563759115900000000000000,0.2370811290704065700000000000000,0.003033972262293037300000000000000,-0.08067174415314644400000000000000,-0.1739418542216722700000000000000,0.2448917147274516100000000000000,-0.2957871806119794500000000000000,0.5108645855733595600000000000000,-0.168651740465816100000000000000,-0.3303289848994531200000000000000,0.03829171974163281900000000000000,0.3886107663692381400000000000000,-0.9055697644856941500000000000000,-0.7234052100293584300000000000000,-0.2288114444627800900000000000000,-0.5500339176599167200000000000000,-0.2148059042943969700000000000000,0.1441907253632342100000000000000,-0.5667224856247782300000000000000,0.01369949991471882700000000000000,0.1986907023625183500000000000000,-0.2545016020154344800000000000000,0.2093024915050601400000000000000,-0.4991362088223006400000000000000,-0.1642418053170691700000000000000,-0.1313733746285178400000000000000,0.6441908687557226200000000000000,-0.2676891102076590100000000000000,-0.426153148186907300000000000000,0.4411075028761225500000000000000,0.2013957056546166700000000000000,0.2354090338746876700000000000000,-0.3416308741953266700000000000000,0.04660347098373832100000000000000,0.07920096478191020200000000000000,-0.02818072458186119500000000000000,-0.09674877708920011400000000000000,0.09830480775809617700000000000000,0.1794876658396262500000000000000,0.8694739092114401900000000000000,0.5701911261355855400000000000000,0.3007676989353879600000000000000,-0.02164655619968049900000000000000,-0.05177099265485334700000000000000,-0.4796502932211281800000000000000,-0.3477766927885675400000000000000,-0.02877505878945832100000000000000,-0.3443360046550728600000000000000,-0.2863198859897516700000000000000,0.3127513912119238600000000000000,-0.01383325002922855400000000000000,0.2854198623820506400000000000000,0.2767654640069929800000000000000,0.1279413631378095400000000000000,0.5966359552848935500000000000000,-0.08103094353969629600000000000000,0.08699563114215708200000000000000,0.2639652667467420300000000000000,-0.05823911612725936300000000000000,-0.3051802648222950400000000000000,-0.3944795599473319700000000000000,-0.04229410057894103500000000000000,0.3218331436292773400000000000000,-0.2945377423464953800000000000000,0.2880759061464169800000000000000,0.1096864905957485300000000000000,0.3631678531288333700000000000000,-0.2633836267129642300000000000000,-0.2802641475198595600000000000000,-0.5166669379752150100000000000000,-0.0774306812789285200000000000000,-0.2643398044495197100000000000000,-0.1107008033619573100000000000000,-0.9374175721516375700000000000000,-0.07597339655978473100000000000000,-0.07567461484475601600000000000000,-0.2218148714503732600000000000000,0.01532192163173799100000000000000,-0.5190895121536357500000000000000,0.2915882947826152800000000000000,-0.1964769403634696600000000000000,0.1370875873623191900000000000000,0.2759097671566907400000000000000,-0.8273936537472290600000000000000,-0.3401344423621562300000000000000,0.05420703980335809400000000000000,0.06215685571940789800000000000000,-0.06561962430029673300000000000000,-0.02463334826540100600000000000000,-0.6059701245226722900000000000000,-0.205899994761696600000000000000,-0.04941288931283255300000000000000,0.2422657567644411500000000000000,-0.2045397013249796200000000000000,0.4765243706265169200000000000000,-0.007718607454508669100000000000000,-0.08445417322003985500000000000000,-0.02832883923422716300000000000000,0.04461249025636979100000000000000,0.3541605366696329900000000000000,-0.2345686318472290100000000000000,0.08985558563049496400000000000000,-0.01332343417806292600000000000000,-0.1683974555950687700000000000000,-0.3117917499804023800000000000000,-0.2611828740493330500000000000000,-0.0966072080602070200000000000000,0.06666913080830420800000000000000,0.2764983365440775200000000000000,0.03151869098033792400000000000000,0.5252836754670835400000000000000,-0.1339265528206629600000000000000,-0.03061011282171190200000000000000,-0.1733070014576296200000000000000,-0.08425910906945124900000000000000,0.02854702585480378700000000000000,-0.4770943048398648100000000000000,-0.3984068630318937100000000000000,-0.386794847921047900000000000000,-0.02838474167124841900000000000000,-0.3908306318451791300000000000000,0.4055703285873248400000000000000,0.148862880557808300000000000000,-0.02426352995590476700000000000000,0.2737701940580625200000000000000,0.2554099402101284200000000000000,-0.38350639497520400000000000000,-0.09497505654659937900000000000000,0.01702561782064115900000000000000,-0.07319922559275528200000000000000,-0.3265388574516077700000000000000,-1.27329009645854900000000000000,0.2114109828338054700000000000000,0.1797144293770904500000000000000,-0.3554283833014322300000000000000,-0.382013591943385300000000000000,0.09071434440193963700000000000000,0.5318555892573171300000000000000,-0.6022965441830965300000000000000,0.2095081285574970900000000000000,-0.005127769273625292500000000000000,-0.2466817552773214500000000000000,-0.1047830958182186200000000000000,0.6107821285620957900000000000000,-0.4507864862921149900000000000000,-0.2758810300130001300000000000000,-0.1152138712836629800000000000000,-0.07940266622144170900000000000000,-0.326816563449607800000000000000,0.2307177557113193300000000000000,0.3650816739007106700000000000000,-0.3723134865499488400000000000000,-0.1952278020641772200000000000000,-0.0460299547435345300000000000000,-0.5395529789563285900000000000000,-0.5306434076303252500000000000000,-0.2414735143454577700000000000000,0.1267354227953767500000000000000,0.751673282871440200000000000000,0.09308698127785344800000000000000,-0.6461378637568707700000000000000,-0.299066492571153700000000000000,-0.06883844800037357300000000000000,0.5856306401212676400000000000000,-0.6971503733077457600000000000000,-0.1567246259952426700000000000000,0.3265573349479484200000000000000,-0.1039522160751466800000000000000,0.144035158756281700000000000000,-0.2200575138094295100000000000000,-0.6313374029614737800000000000000,0.05822199478988564900000000000000,-1.056616546555445300000000000000,-0.3475212678998784200000000000000,0.135179300744384700000000000000,0.1429162315203477400000000000000,0.5562787357143590400000000000000,0.3774077075516151200000000000000,-0.1136956220757330700000000000000,-0.7491788640157656100000000000000,-0.4041734042672822700000000000000,-0.5619604863543949900000000000000,0.007602105874475018900000000000000,-0.2267353340016297600000000000000,0.1398962009837151900000000000000,-0.2921685253107507700000000000000,-0.7155942777836369300000000000000,0.1273912883463314800000000000000,-0.1590612676793484700000000000000,-0.23780133614137200000000000000,-0.2246652313791549200000000000000,-0.3169537301188515800000000000000,-0.1655974986373502700000000000000,-0.1323204331687987100000000000000,0.2020840956351598300000000000000,-0.2212633540504362300000000000000,-0.1328547112621215600000000000000,0.01948395728880897300000000000000,0.01656123175837645100000000000000,-0.3388630310857043100000000000000,0.1224842516794048700000000000000,-0.007289856294229789800000000000000,-0.8235809692041949900000000000000,0.2678752914434920900000000000000,-0.04842164049762649100000000000000,-0.3850220614230340800000000000000,-0.187759625055783700000000000000,0.194988732968465500000000000000,-0.4119020957317624500000000000000,-0.1224110875645883800000000000000,-0.4738241551440911500000000000000,-0.4262590846784040700000000000000,-0.2474406685944453800000000000000,-0.002703439045953097900000000000000,0.02025651833529538300000000000000,0.3453145336033098300000000000000,-0.3689411798617978600000000000000,0.02508619808786972900000000000000,0.1838197426479217500000000000000,0.3159117657040638200000000000000,0.04388501473356059400000000000000,0.3234311200958631700000000000000,-0.1895347546271410900000000000000,-0.173219905416331700000000000000,0.1543944505901650400000000000000,-0.02995167387653708100000000000000,-0.1436688004087013400000000000000,0.006963383875937111100000000000000,-0.4176361872249794200000000000000,-0.2736665438699909500000000000000,-0.1723489182229476500000000000000,0.04772465332706258400000000000000,-0.1034258084722409800000000000000,-0.07138358676928208100000000000000,0.6401406036130914400000000000000,-0.1718664401976270400000000000000,-0.2972015315829992800000000000000,-0.2402575471852212200000000000000,-0.04329227991090416100000000000000,0.1894309648282169200000000000000,-0.2000119351056102400000000000000,-0.1257732716413677800000000000000,0.2080728180017900900000000000000,0.04095375289045640600000000000000,0.09398354928660995800000000000000,-0.2701106427260321400000000000000,0.1388629416033020900000000000000,0.3702502944756941900000000000000,0.005208348346080421900000000000000,-0.05743506884525758500000000000000,0.1663602570422645900000000000000,0.3968155785477169300000000000000,-0.4061323012940277200000000000000,-0.03852423765297324800000000000000,0.2661506546519675200000000000000,0.1396731020539624400000000000000,-0.3814239296916798200000000000000,0.524099193432536300000000000000,-0.07885027893209077500000000000000,-0.01461378972571104200000000000000,0.1668976390793352700000000000000,0.3332783727960190200000000000000,-0.3790751467723808600000000000000,-0.5702633007783983700000000000000,-0.5016659361243009900000000000000,-0.548091566687833100000000000000,0.0231989264002806300000000000000,-0.07703162646882608100000000000000,-0.4951940283770712200000000000000,0.522108087366764400000000000000,0.4851534139659763900000000000000,-0.07724484597293773700000000000000,0.08845156252434939500000000000000,0.1093831280932771900000000000000,0.07684880516764093500000000000000,-0.006676407140226243500000000000000,0.3528872775148889600000000000000,-0.3648437451780246500000000000000,-0.4970283298276509900000000000000,-0.001615333810605776800000000000000,-0.1040285652885788600000000000000,0.08770090889164085200000000000000,-0.4972938000753185400000000000000,-0.05910238218085667200000000000000,0.05742496515322576700000000000000,-0.01427901009212557600000000000000,0.08242382893524997900000000000000,-0.03668085430153557300000000000000,0.2304876483547777800000000000000,0.9888442044683071200000000000000,0.5515172487620533200000000000000,0.2099328178977612200000000000000,0.2623454063199477900000000000000,0.0717703365581023600000000000000,-0.2177940695188154700000000000000,-0.1915980846979791800000000000000,0.09981646547038651500000000000000,-0.4648861437931432500000000000000,0.2279574900299691200000000000000,0.144803426467962100000000000000,0.008836613130170282600000000000000,-0.2970610262846740700000000000000,0.07292209611185185300000000000000,0.0469319605156592600000000000000,0.1861257311068052500000000000000,-0.09414940767806324900000000000000,-0.0907052214499929200000000000000,0.2836778002692562600000000000000,-0.2813447191912953300000000000000,0.1909664403228163200000000000000,-0.1877490914867594500000000000000,-0.3713257781985016500000000000000,0.2654177131296419100000000000000,-0.097573282607323800000000000000,0.1542373843604615800000000000000,-0.04488813225208233800000000000000,0.1321025115665234500000000000000,0.01796889436881809300000000000000,-0.314930947079470500000000000000,-0.01131881527860816500000000000000,0.3092044960132809800000000000000,-0.6447812820781115800000000000000,0.0375764650206579300000000000000,-0.790634448485881600000000000000,0.03693173068045765800000000000000,0.09434618066336879200000000000000,0.07501926585876425600000000000000,0.1326043695437919600000000000000,-0.3901222388783032200000000000000,0.2155236933185349900000000000000,-0.0403025478841304300000000000000,-0.1099255008274149100000000000000,-0.4410140045778931400000000000000,-0.7170976884555390100000000000000,-0.0457767183785700100000000000000,0.302394813437409700000000000000,0.07157101067283616600000000000000,-0.01197440573090041500000000000000,-0.1384618709535264400000000000000,-0.4197352533602208300000000000000,-0.2317519785502748800000000000000,-0.1644670400793126500000000000000,0.2066675295935352100000000000000,-0.3954630988862540300000000000000,-0.09564301681135818600000000000000,-0.1551425403342814900000000000000,0.2124250229421177400000000000000,0.01810105000244882300000000000000,-0.1640214485008838800000000000000,0.2694204682794901200000000000000,0.4746163847380016100000000000000,0.09843567627149603400000000000000,0.1112185987745647100000000000000,0.1552276189321664900000000000000,-0.2675409251491452400000000000000,-0.2651062029002047600000000000000,-0.3141889263268369800000000000000,0.09534250971359811700000000000000,0.259781080162814200000000000000,-0.2076349761585734300000000000000,0.5130525596655235400000000000000,-0.3882923115148693100000000000000,-0.06541050130632984600000000000000,-0.2109157282136038800000000000000,-0.2316107962478829200000000000000,0.05044132463896294100000000000000,0.03840094183848499800000000000000,-0.1171909649064011800000000000000,-0.0191109384683844500000000000000,-0.03165366929279528300000000000000,-0.03401247639773898700000000000000,0.3666252612202544600000000000000,0.1481734836964700700000000000000,-0.1090673032787331700000000000000,-0.2329796063177168300000000000000,0.1236233858794383600000000000000,-0.1025708487661041900000000000000,-0.2773986649621905700000000000000,-0.2565951500685171900000000000000,-0.09018953346848519700000000000000,-0.2465663869264054800000000000000,-1.080143848456758700000000000000,0.6911335682497333800000000000000,-0.005460260808685798600000000000000,-0.1867526015401416200000000000000,-0.05025647066795826300000000000000,0.06671207092949735200000000000000,0.4558421601361005200000000000000,-0.8410942759471671200000000000000,0.2272094380152652700000000000000,0.01749704708667868300000000000000,0.646339184612634400000000000000,-0.1949156172544681300000000000000,0.2854253445057685600000000000000,-0.3206138587032747500000000000000,-0.1662336132152023900000000000000,0.01354408481163566800000000000000,0.3059997041412210200000000000000,-0.04569447535545071600000000000000,0.4243022954149680600000000000000,-0.1613683107714975800000000000000,-0.6564248717953091700000000000000,-0.2985450225161414600000000000000,0.5881068759643763900000000000000,-0.4778315504606767100000000000000,0.06914012028911228900000000000000,-0.6348512130639433200000000000000,0.1673991956442908200000000000000,0.249838321898972900000000000000,-0.220505695923571500000000000000,-0.5548342721057988300000000000000,-0.6081814686579426500000000000000,-0.06062075673953233600000000000000,0.7563697395903250500000000000000,-0.2398695091666887300000000000000,-0.3437104393089119300000000000000,0.3602300803894826800000000000000,0.03569727649363842900000000000000,-0.06028168718925264200000000000000,-0.1534907055845721700000000000000,-0.02395329428531648600000000000000,-0.08282077678576582600000000000000,0.2536322748784395300000000000000,0.03049016763500613300000000000000,-0.1517525008703035900000000000000,0.0361386259958878100000000000000,-0.1354560157784048300000000000000,0.2145024967791937500000000000000,-0.108127284578789300000000000000,-0.5515870742796776800000000000000,-0.434396382907889400000000000000,-0.4749122630542886900000000000000,-0.171961053221960400000000000000,-0.2320311892950812100000000000000,-0.07215300528264198500000000000000,-0.1404305946681567700000000000000,-0.2690610965318707100000000000000,-0.3344818887456851300000000000000,-0.04148189686471472800000000000000,-0.3154802495343838100000000000000,0.1838374030435275800000000000000,-0.6313985035226652400000000000000,-0.4636213675696491100000000000000,-0.3652557315225781800000000000000,0.2205300014888024200000000000000,-0.4978876918190277600000000000000,-0.03173830526723852400000000000000,-0.183821502984340500000000000000,0.03354181355846298800000000000000,-0.4093139255221743800000000000000,-0.1354876941247263900000000000000,-0.4036966490790427900000000000000,-0.2142621215603807400000000000000,0.3015024591965609900000000000000,0.09474577559932510800000000000000,-0.4485942417156855700000000000000,-0.198534650644404200000000000000,-0.08705152252557191200000000000000,-0.2438869539274816600000000000000,0.2987648068269957400000000000000,-0.3243593629488086300000000000000,-0.3689499152184693700000000000000,-0.08285950038844226700000000000000,-0.07888484824027368300000000000000,-0.2332506322452623800000000000000,-0.1404617924108129700000000000000,-0.2393578588378861800000000000000,-0.2922704842935598400000000000000,0.3442096207318534100000000000000,0.2645417818462749100000000000000,0.1019605455291995300000000000000,-0.2697144125345422600000000000000,0.1863429026297212800000000000000,-0.1204047402041581200000000000000,0.4048159886901270800000000000000,-0.07705853021380547300000000000000,-0.6361581538064964300000000000000,0.1542315685757467100000000000000,-0.6076114010274317200000000000000,0.05470667228271229600000000000000,0.1193734583680951400000000000000,-0.1497641232398622100000000000000,-0.4042577365583854300000000000000,0.05257490414406026900000000000000,0.5581472310880570800000000000000,-0.5453390801423785300000000000000,-1.122543330146562400000000000000,-0.2652177250957266100000000000000,-0.3308408997268035300000000000000,0.1676608404037761800000000000000,-0.07118951959549225900000000000000,-0.07913197759236437200000000000000,0.1253195202664000600000000000000,0.05073034654549837100000000000000,-0.05246541480036616400000000000000,-0.1115135632483590900000000000000,0.4284870644707611300000000000000,0.7138689126913135800000000000000,0.1823685200550311800000000000000,-0.4203896250175432300000000000000,-0.2636447180622621400000000000000,0.339730871936127500000000000000,-0.2939130338741890400000000000000,0.1596262531361202800000000000000,-0.2758532482457682300000000000000,0.05695200215551949500000000000000,-0.3568198124037700300000000000000,0.3719072454593835800000000000000,-0.05315974930346532200000000000000,-0.03367785659806077400000000000000,0.3915544122844338800000000000000,0.5207755546315355800000000000000,0.253210718865221900000000000000,0.3732588446261076400000000000000,0.03090930346157389600000000000000,-0.32568416185790400000000000000,-0.2021960596924488600000000000000,-0.0771836735827457900000000000000,-0.385741788657364800000000000000,0.1906018489638081100000000000000,0.4654521522897494500000000000000,-0.08290809306270506600000000000000,0.3432309320224415400000000000000,-0.1808055232706497500000000000000,0.1095439560915334600000000000000,-0.04657608788557730100000000000000,0.5140992408359680300000000000000,-0.5487465660305248500000000000000,-0.5001678201696575500000000000000,-0.1648467200755000500000000000000,-0.002152980463028481500000000000000,-0.04133069064388264500000000000000,-0.2597142169151651600000000000000,0.1287485155617014400000000000000,0.2948260954349307100000000000000,0.08124101335901763600000000000000,-0.1331624710074098800000000000000,0.9786804194232537900000000000000,0.3456596662511499100000000000000,0.4391941072511568700000000000000,-0.05028622266102341500000000000000,0.04140080870647698500000000000000,0.5431793764464337700000000000000,0.1021714153231482200000000000000,-0.4818495575684705300000000000000,-0.0728709663563330700000000000000,0.1754831572802882400000000000000,-0.03311755893169816800000000000000,0.0432062300018769200000000000000,0.2919147082506613500000000000000,-0.1668158570658459200000000000000,-0.157287976564065100000000000000,-0.1928626671203325400000000000000,-0.1857372166101448100000000000000,0.5404785398766708300000000000000,-0.1610266830014174800000000000000,0.1169066022971846100000000000000,0.07027907375613992600000000000000,-0.2480664460898032700000000000000,-0.2195467407496797300000000000000,-0.0821159766810017900000000000000,-0.3123335649996630800000000000000,0.006941498119247935300000000000000,-0.5897836664023907700000000000000,0.2210915671231500100000000000000,0.1890701881065892100000000000000,0.002316329806262281100000000000000,0.1677006358659437800000000000000,-0.2514015275732218700000000000000,-0.1301317904220278500000000000000,0.3521673171104240400000000000000,-0.4542726421048224900000000000000,-0.3914997912324902400000000000000,-0.4543606433144127800000000000000,-0.1110481011833644600000000000000,-0.4589782188264102700000000000000,-0.2159151388801104100000000000000,0.249980381811555300000000000000,0.09054590088308249500000000000000,0.2609182565922432100000000000000,0.004871630113014542200000000000000,0.3234214393994980800000000000000,-0.1085829913923561800000000000000,-0.4130551230532750200000000000000,-0.003038825807023547600000000000000,0.3145608567478294100000000000000,-0.2449039057413799300000000000000,-0.0006877030278517926100000000000000,-0.113976617511814200000000000000,0.1670105163489018500000000000000,-0.3931632766496859800000000000000,-0.06050530197693142900000000000000,0.01334502394843021700000000000000,-0.4460361265681248600000000000000,0.2250443138941788100000000000000,-0.0897485513616270300000000000000,0.3171647021193422200000000000000,-0.5259745500864740900000000000000,-0.114804556118637500000000000000,0.09607243434348551600000000000000,-0.4855494968523458300000000000000,0.2186152194624717800000000000000,0.292583540552109500000000000000,0.289592453999231500000000000000,-0.2917360837322068300000000000000,-0.2104993666409684100000000000000,-0.07276183209660523600000000000000,0.09495765867370185900000000000000,-0.09089459668176164100000000000000,-0.07752875417042992500000000000000,